svm_type c_svc
kernel_type rbf
gamma 0.03125
nr_class 10
total_sv 33
rho -1.81543 -0.174805 0 0 0 0 0 0 0 -93.0519 -99.0371 -22.3213 0 0 0 0 0 -10.8018 0 0 0 0 0 0 -13.9463 0 0 0 0 0 0 0 0 0 0 0 0 0 0 -9.30227 0 0 0 0 0
label 1 2 3 4 5 7 6 8 9 10
nr_sv 3 8 5 3 3 2 3 3 2 1
SV
32768 5461.333333334274 0 0 0 0 0 0 0 1:-0.980766 2:-0.989948 3:-0.987308 
19168.08408758442 0 0 0 0 0 0 0 0 1:-0.990527 2:-0.989948 3:-1 
32768 32768 5079.387223735997 399.7525792847101 67.31079638916751 38.15674608589649 25.37818868289849 14.48845955555018 4.252428316443305 1:-0.942586 2:-0.949436 3:-0.935769 
-19168.08408758442 14395.49428691425 0 0 0 0 0 0 0 1:-0.95206 2:-0.959488 3:-0.935769 
-32768 32768 32474.73184516187 3518.859608172394 0 0 0 0 0 1:-0.971293 2:-0.979896 3:-1 
-32768 0 0 0 0 0 0 0 0 1:-0.96182 2:-0.959488 3:-0.961538 
-0 19198.74033644136 0 0 0 0 0 0 0 1:-0.95206 2:-0.949436 3:-0.948846 
-0 32768 0 0 0 0 0 0 0 1:-0.942586 2:-0.93908 3:-0.935769 
-0 32768 10022.67712327855 0 0 0 0 0 0 1:-0.894646 2:-0.888517 3:-0.871923 
-0 13930.42950689318 12795.57589314493 4912.221256825768 0 0 0 0 0 1:-0.655519 2:-0.644837 3:-0.628077 
-0 0 0 0 1381.636827802026 261.1077287017151 93.75365185806091 36.3549245477633 6.288964783825008 1:-0.626812 2:-0.624429 3:-0.576923 
-5461.333333334274 -32768 0 0 0 0 0 0 0 1:-0.933113 2:-0.929028 3:-0.910385 
-32768 -32768 11960.34018093024 0 0 0 0 0 0 1:-0.942586 2:-0.949436 3:-0.948846 
-0 -32768 32768 0 0 0 0 0 0 1:-0.904406 2:-0.918977 3:-0.923077 
-0 -32768 0 0 0 0 0 0 0 1:-0.91388 2:-0.918977 3:-0.910385 
-0 -14756.66413024876 32768 21788.59220779221 184.7466854600713 76.97171118431315 43.75196499261987 21.40674590263291 5.062385394736961 1:-0.770346 2:-0.78678 3:-0.795 
-5079.387223735997 -22524.98486158531 -32768 8469.850167723005 0 0 0 0 0 1:-0.8757 2:-0.90862 3:-0.923077 
-0 -32768 -32768 0 0 0 0 0 0 1:-0.865939 2:-0.888517 3:-0.871923 
-0 -0 -11960.34018093025 32768 302.2649491036843 102.9605518324864 54.94637418205399 24.85697607230165 5.382700696883451 1:-0.693699 2:-0.736217 3:-0.769231 
-399.7525792847101 -8431.080864998159 -21788.59220779221 -32768 0 0 0 0 0 1:-0.741639 2:-0.78678 3:-0.820385 
-0 -0 -0 -8469.850167723005 0 0 0 0 0 1:-0.655519 2:-0.715809 3:-0.743462 
-0 -0 -0 -0 1364.445022771633 215.073211378466 90.14677341357262 34.23334775263016 6.107817592778328 1:-0.588632 2:-0.644837 3:-0.666538 
-67.31079638916751 -1381.636827802026 -184.7466854600713 -302.2649491036843 -1364.445022771633 0 0 0 0 1:-0.492752 2:-0.553457 3:-0.589615 
-0 -0 -0 -0 -0 2869.862470065002 316.5094421491501 68.50807288051156 7.742100063174576 1:-0.416392 2:-0.472129 3:-0.512692 
-38.15674608589649 -261.1077287017151 -76.97171118431315 -102.9605518324864 -215.073211378466 -2869.862470065002 0 0 0 1:-0.377925 2:-0.431617 3:-0.423077 
-0 -0 -0 -0 -0 -0 2310.520937592734 0 0 1:-0.301565 2:-0.380749 3:-0.461538 
-0 -0 -0 -0 -0 -0 11177.57258149089 1605.936249641045 13.65131141058209 1:-0.0719104 2:-0.157478 3:-0.230769 
-25.37818868289849 -93.75365185806091 -43.75196499261987 -54.94637418205399 -90.14677341357262 -316.5094421491501 -0 0 0 1:-0.167504 2:-0.289369 3:-0.435769 
-0 -0 -0 -0 -0 -0 -13488.09351908363 0 0 1:-0.0813837 2:-0.187938 3:-0.307692 
-0 -0 -0 -0 -0 -0 -0 847.6338099328045 12.99216855760675 1:-0.0334434 2:-0.157478 3:-0.333462 
-14.48845955555018 -36.3549245477633 -21.40674590263291 -24.85697607230165 -34.23334775263016 -68.50807288051156 -1605.936249641045 -847.6338099328045 0 1:0.0239701 2:-0.0761499 3:-0.166538 
-0 -0 -0 -0 -0 -0 -0 -0 40.50031744192496 1:0.311038 2:0.22845 3:0.153846 
-4.252428316443305 -6.288964783825008 -5.062385394736961 -5.382700696883451 -6.107817592778328 -7.742100063174576 -13.65131141058209 -12.99216855760675 -40.50031744192496 1:0.808526 2:0.766677 3:0.666538 
